-1.520081386862904615e+00 -6.363588316502018054e-03 9.917633755032453924e-02 -4.357217126458438061e-01 -2.326097170395782232e-01 4.525782484863278277e-01 2.375719102210878397e-01 -1.546709890413320854e-01 -1.490340367106290920e-01 -2.807988605628964351e-01 2.006736963881604052e-01 3.204611625867355151e-01 3.607656505070674369e-01 -5.807907960002070547e-02 4.124130487953612811e-01 3.553115359650207417e-01 2.167490382337687316e-01 2.867494798217142260e-01 -1.345127649744849718e-01 2.833577485865828027e-01 -4.559264560972563496e-01 -2.960528161990504392e-01 1.398393605209306001e-01 6.282176083383068238e-03 3.678358694226548098e-02 -2.741630457805793730e-01 -6.737297623805348079e-02 4.270815767379300132e-01 -2.439691470817947905e-01 -3.471837750876494155e-01 4.189824446183083168e-02 1.315378290677490514e-01 4.330822942081807292e-01 -4.458225714940808326e-01 4.441449113469982390e-01 -7.581052458550002759e-02 -8.526177703718214318e-02 -5.529777617345031648e-02 1.879119716209763924e-01 -1.764084274849997969e-01 -1.369682024346212390e-01 3.925366414470572995e-01 2.980120883442991531e-01 -1.382819827790236766e-01 5.536539672326142025e-02 -3.543883535215648917e-01 -4.771146696825580291e-02 -1.535306426648375966e-01 1.366996470727903715e-02 -2.242156169308014702e-01 3.564891395256594708e-01 -3.019405284898083255e-02 -2.423376562609464435e-01 1.643966019021179115e-01 -4.352017710278278106e-01 3.078918880848003498e-02 -3.995010744784752710e-01 -4.113969974794697282e-01 1.161969705984431250e-01 -4.238165061885257323e-01 3.228478378090566814e-01 -2.170585363359982811e-01 1.871161938407232550e-01 1.232732077191689979e-01 1.040606061320713781e-02 1.630750156128491224e-01 1.352744809408480409e-01 3.188823393702902576e-01 -5.425491458922172550e-01 -1.102268260466597594e-01 -2.823985572964486379e-01 -1.734371652779226891e-01 -5.341645329893743299e-02 -4.128705564353374324e-01 3.706125631924185870e-01 -4.517882548852730218e-01 -1.538812795901413066e-01 1.865147011102243346e-01 1.513118403425834334e-03 -1.300866403021691819e-01 1.902469602412531491e-01 3.608501732835031617e-01 1.293537565832780512e-01 -1.098551015329985586e-01 2.484183176929822753e-02 -2.796416099459578253e-01 -4.011752883006416415e-01 1.384609945923846175e-01 1.483245503707840973e-01 2.306936808192093791e-01 1.918411870176948142e-01 4.406137471497559299e-01 1.284869794297982537e-01 1.660768477126198239e-01 1.646885202130721204e-02 -5.313890013463217210e-01 -2.963349000805782230e-01 2.986563607703588558e-02 -2.026833260143928728e-01 -4.462869193801956014e-01 -5.028875278639992619e-01 4.121844105307723855e-02 -4.549568417839792156e-01 -4.585617297321226693e-01 7.673312664826852092e-02 -2.320071801002238365e-01 -2.449734157870332371e-02 -6.971943086801027367e-02 3.191524020688951691e-02 -3.834557727048261699e-01 8.613835323709419234e-02 1.521240114241339536e-01 5.680574721668192606e-02 -1.705183609543440559e-01 -2.195839207007332372e-01 2.553131417530864478e-01 1.771148401606472966e-01 -1.292844775720330686e-01 -3.315015736954810555e-01 -2.983371536381539402e-01 7.899569796872132899e-02 2.377927452344231196e-01 -7.271360165004252599e-03 -8.742932535526047599e-02 -2.179736506279941199e-01 -5.874091472847081663e-01 2.364027682107187056e-01 -2.354573000552942219e-01 -2.826819475056761011e-01 3.430778363646513340e-01 -5.070929516564831596e-01 -1.819922936987235507e-01 -9.360046346825988406e-04 -3.833238327201192175e-01 4.696731142274409437e-02 -3.574803150620586289e-01 -8.361235511813418231e-02 1.413557470792221049e-01 -7.358146168313664526e-02 -3.689032590688826607e-01 3.998901342349907573e-01 -1.439408725789109722e-01 4.378964192155971880e-01 5.240634870440279841e-02 1.893243941838669009e-01 1.593026872315358305e-02 1.661632420089270423e-01 -3.758721002618168883e-01 1.168812083198315921e-01 -5.963824226088169089e-01 -8.621334682763216739e-02 8.038186029007515776e-02 1.295145083831013288e-01 -4.197078156202467825e-01 2.467819750825607228e-01 2.899991865880715558e-01 -2.534337576338201448e-01 2.433945052526687303e-01 -9.800920737721532938e-02 -1.617656204934425634e-01 1.450816719795926246e-01 -1.507041234112240502e-01 -7.090714799500763554e-02 -1.015498758212449587e-01 -3.344599695492050939e-01 -2.650531028129138877e-01 -6.805581680041947190e-02 -1.793734057716582855e-02 -2.024354791791542207e-01 -3.450113503632137868e-01 3.621452388050777071e-01 -1.868547781933854179e-01 -1.315616375228800816e-01 3.737300506123178989e-01 -9.052348292769659202e-03 -3.756487008107188830e-01 8.490913374031071326e-02 8.117186039305149259e-02 -1.904655780557833189e-01 -2.541009319463953808e-01 -8.701085155434432061e-02 3.603101631206828137e-01 -3.109931300215758032e-01 3.318790348037580218e-01 -6.265116489270193545e-02 3.825897895401512150e-01 2.101946524787688952e-01 6.095305593865057991e-02 1.846588038255363717e-01 2.188901831255906372e-01 1.988760198722870909e-01 1.812655323512339378e-01 -1.408701250589358689e-01 -3.353216663003495412e-01 -2.088407262117015495e-01 1.402162703777709574e-01 3.881276216580974436e-01 4.217342648819292217e-01 1.993091857670296063e-01 3.648978591356915047e-01 4.255060715906873736e-01 1.609120662442875271e-01 -1.690868140399275771e-02 -1.034681284384026678e-01 -4.102647758526324351e-01 -4.657045990708446048e-01 -1.888435837544085172e-01 1.959226199233512766e-01 -4.356821735515316041e-01 -3.740165811920389410e-02 3.456700414842556746e-01 -1.696190252647331864e-01 3.161034813893600637e-01 2.713962836757605745e-01 6.695028527368942495e-01 -5.545441248768016862e-02 -1.175498946391361800e-02 1.533210915079765979e-01 -1.885551807503640653e-01 -3.080620170758094356e-01 1.051817627284168943e-01 -1.824509819214444051e-02 9.264360260221460308e-02 3.874543197570160524e-01 -1.656154083192837856e-01 -3.972268729953075395e-02 -4.451308751713076162e-01 3.447563187378935301e-01 1.236223208722130873e-01 -4.156968953221190644e-01 1.613370721766126392e-01 -6.946427584066015848e-02 5.234509603050100345e-03 -1.657132577784643235e-01 -3.756639909387792242e-01 -4.283893289660659770e-02 -1.206994447970922979e-01 -1.028494829284472278e-01 1.461133639075449242e-01 -4.125417401204329454e-02 3.258928612632334687e-01 2.204609977580266333e-01 2.555241001821115798e-01 2.075656736649821588e-01 4.404812021992050852e-02 2.622484615210285419e-01 -4.405898783617030745e-02 1.104375591177483434e-01 -1.294553842134112953e-01 -5.273150332423884867e-01 -5.069516414980553692e-02 -2.239022679054081810e-01 -1.709474884091462810e-01 1.257672614696253924e-02 -3.276899194357383305e-01 1.435677744621073615e-01 -2.257109478647348344e-01 -1.156108085827035337e-01 -5.310294037070409923e-01 1.593305245169933729e-02 -5.100878375688084887e-01 4.725603768117016268e-02 2.547870085373019761e-02 -2.855795793927434212e-01 3.062552772622009062e-02 3.170050492680591692e-01 4.515879135942310052e-01 1.782191464138242198e-01 1.571954764978131525e-01 2.447663962527651671e-01 5.301277027403362707e-01 3.226330465310811024e-01 1.177651399825846712e-01 7.857186708245980644e-02 -3.493301312424611504e-01 2.514007098923759509e-01 -1.357416684524632988e-01 -1.458107572846869919e-02 -1.215481758918314781e-01 2.881037428453401585e-03 1.035621753946262824e-01 -2.685955676060252095e-01 -4.540052743606205476e-01 -6.153670615054726567e-02 -2.450817040465333788e-02 3.160162421246509590e-02 -2.823946814753185985e-01 1.362884507663437300e-02 -2.220150575558932915e-01 -4.813261870342064319e-01 1.155814265416767878e-01 -1.635705814854159224e-01 2.073512324508512139e-01 -4.062562155323792834e-01 1.916942856503949799e-01 -2.139732341239596394e-02 -6.987155984792281505e-01 -3.087874063590681506e-02 -2.373210392572411009e-01 3.100516448332902297e-01 1.330030401244824134e-01 3.524058432654408324e-01 2.344410129300283085e-01 7.852899106605215618e-02 -3.264807328814690046e-01 -9.400052964324843996e-02 -1.404406608638551768e-01 4.603007946340892387e-02 -4.504063312558884702e-01 2.366881681319328579e-01 1.030152299871827382e-01 -1.877522149724663580e-01 -1.118320778096017765e-01 -6.531217660052480722e-01 -4.065189269316418219e-01 -5.037981118946635029e-01 2.154096430814553265e-01 -3.129042569409590802e-01 5.588532353724725427e-02 1.507135093907449042e-01 4.495310562930701637e-02 2.546813442545014516e-01 -1.864479772231975863e-01 -3.014409267039888651e-01 -3.123196735384051737e-01 -2.690462450649842574e-01 -1.645093432880907480e-01 3.930524154104364509e-02 1.407480765464701467e-01 -2.350336245937978130e-01 -4.360632568872874204e-02 5.357739776608718696e-01 6.143316085038210694e-01 -4.818108330693537389e-01 1.482165835572332446e-01 -3.818975721558039438e-01 -7.291156259733816425e-02 -4.372838460905009716e-01 1.729330710583039943e-01 -3.250762550917966620e-01 -3.152569817871725411e-01 -6.908845404340209218e-01 -1.048509273041242362e-01 1.088589353062879017e-01 3.187181725490730311e-01 3.515528079591015431e-02 -4.023577480179776900e-01 -2.217268071326807810e-01 -3.121618724601932238e-01 4.133128359396121693e-02 -3.608728189819482290e-01 -6.427400395542445244e-01 -1.146813344552910285e+00 -6.905647102974605822e-01 -3.461855118925895036e-01 2.302199861565169536e-01 1.809062560790452578e-01 -1.266922721218388670e-01 -2.279603001200776469e-01 3.074375464675989100e-01 2.660662691451515793e-01 3.745995780548985188e-01 3.963018277278551604e-01 -4.244976697377600972e-01 1.789631754080375226e-01 2.755454833568526940e-01 -3.384986512016671667e-03 -3.304330227471559689e-01 -5.513936139616911619e-02 -1.356549930025384987e-01 1.620710460876359782e-01 -2.783734117495564875e-01 4.309020189126741007e-01 -7.541531690011940570e-02 5.527593407525144276e-01 -2.500896661815010247e-01 1.900923643407319008e-01 2.481847772460388235e-01 -9.451319007443670372e-02 -4.032396929877093972e-01 -7.633948485409590701e-01 -1.397944930762475835e-01 -5.765261755150731249e-01 -2.643004589557059192e-01 -1.954880551968958824e-01 3.172003468772207069e-01 6.704234739276214439e-02 4.640256887303875755e-02 6.155503594705647244e-03 6.330056291275042157e-02 -3.535845805925086349e-01 -1.923397251535997332e-01 -3.557011841547932929e-02 5.091096142606701264e-02 -1.687025880585094617e-01 3.744007587808976800e-01 -5.601861239283506544e-01 2.630042462388048480e-02 8.964313512021308827e-03 3.239049044591364446e-01 -4.932065222546325872e-02 1.750152297651692279e-01 1.844921944643752032e-01 5.490459081877168135e-01 -1.184157462184494830e-01 -1.618396654461762008e-01 -3.418969278377647081e-01 -1.365521556589668561e+00 -6.979384993491251077e-01 -6.817492625204121248e-01 -4.819049843537848155e-01 2.707710662250142897e-01 -1.017630635381709114e-01 -2.667608693637121831e-01 3.550772417952493543e-01 3.127108559072148131e-01 2.408715238265859149e-01 3.450457466132759721e-01 3.648941246370949187e-01 4.000131962801478092e-01 -3.911613261702130973e-01 3.254103997268992243e-01 3.688418386054208298e-02 1.852684819932054472e-01 -1.421392201648753462e-01 -4.706342941978142735e-01 6.502850876268738700e-01 9.432049349308212205e-02 5.611986584770180947e-02 2.519801225983602788e-01 5.622497593701404339e-01 -1.020333127429023101e-01 -1.073509047392481042e-01 3.445405451791944823e-02 -8.071764084935325601e-01 -5.435235377523170985e-01 -4.098186385589951963e-01 -3.054944782477069312e-02 -4.299717561539496691e-01 -3.565198928538899081e-01 2.072728215660435969e-01 -2.185073826712273792e-01 -1.796955104815861626e-01 -3.191411478183485140e-01 -7.312550450325908113e-02 -3.578010536500794148e-01 -3.375061607271551134e-01 -8.205517878981197222e-02 -3.458134220549917148e-01 -1.563658342314040994e-01 3.362756582928586591e-01 3.287476841674668027e-01 3.019775577044154016e-02 -3.833901436034330978e-01 -3.302021689656167019e-02 3.500905720861591242e-01 -1.430830035421981616e-01 3.299422472662775219e-01 5.214208869867342777e-01 4.365437083909107785e-01 4.098447537215551550e-01 -7.221722724822750017e-01 -6.437990618121036679e-01 -9.996699580488455084e-01 -8.079683948133719040e-01 -7.248683303364366060e-01 1.310008904154661424e-01 1.675473211089855141e-01 3.453895436530915464e-01 1.472078091036971015e-01 2.067977631406558992e-01 2.196546420479222050e-01 3.729080033746701717e-01 -3.829613347949656355e-02 4.091516947559423190e-02 -3.305236988747643490e-01 -3.396429858855521400e-01 3.987393837931762497e-01 -8.224473723685232773e-02 -3.935179199893609758e-01 5.645911659190814766e-03 1.999747902112127551e-01 4.417558188150309539e-01 5.138852671594434929e-01 4.713595911126020610e-01 1.271863352105914446e-01 -9.705907786025552708e-02 7.267124191099062491e-01 8.496245577025071660e-02 -9.410810975286174607e-01 -5.103507431519791471e-01 -6.069298588807008343e-01 -6.146156875354675808e-01 2.484406225995252626e-01 -3.669499011193563254e-01 -1.245691760602839621e-01 -5.089192220452292137e-01 -8.245484284996482116e-02 -4.976278277366468217e-01 2.234797747309457960e-01 -8.518013879433247726e-02 1.769427076381445418e-01 8.038142792906781409e-02 -4.177005896434567989e-01 -3.874374859298686524e-01 -3.865508509005950444e-01 -2.870294556502801520e-01 -4.634301562861604107e-01 1.910122409026345780e-01 1.183906981242467960e-01 2.894478055013277040e-01 -6.784350024250362932e-02 1.283148584034461970e-01 1.251581028744123136e-01 2.447635259481123482e-02 -1.667895328369083802e-02 2.947352790479882412e-01 -4.284999220854912028e-01 -6.347979787863208267e-01 -3.102972680603646172e-01 -2.750193485851492592e-01 1.009957343560532322e-01 5.041023449969472825e-02 -4.642745529277766958e-02 -2.976321537245713023e-01 -1.901252406940923123e-01 6.430481305138097126e-02 -1.354659414051064860e-02 -2.193342293269467391e-01 -2.374107711525351161e-01 8.440890848757577614e-02 2.290657328384909652e-01 -2.565683731234662535e-01 -1.347282718294081638e-01 3.730312250976908772e-01 3.953700752461168366e-01 -3.220319313496191604e-01 -2.379662175899313614e-01 2.767438918999267083e-01 -7.022049515814580978e-02 1.705740897171517667e-01 5.064619424557591926e-02 1.869438063066969080e-01 7.742899841681817608e-02 5.508937267912203395e-02 -2.121150311387184628e-01 1.079249177500198886e-01 3.685752443050648725e-02 -7.700627660070314962e-01 -6.087440600765717802e-01 2.355044636161076066e-01 -4.591051777153028479e-01 1.114162054276007369e-01 -3.769044591804857069e-01 4.198296397282209186e-02 -1.580484332775885237e-01 -5.116283683626281498e-01 -2.689086013907771022e-01 -3.980300830737089068e-01 -8.691162500040509539e-03 2.564309363719924906e-01 -1.716984822380067111e-01 -2.536604307018274218e-01 -5.320757693582995468e-02 -4.834247621982564747e-01 -4.601778295298822874e-01 2.231820947515981424e-01 3.828287304078245579e-01 -8.291302099254155289e-02 -6.817669665484983321e-01 2.937054161137638286e-01 5.071777829026322681e-01 -1.876545010935607993e-01 -8.163191766713800979e-02 5.905926489768840298e-02 9.098108706959757985e-02 -1.559791930510563696e-01 -2.666135061229891745e-01 -2.826229921791035826e-01 -1.284283921564911835e-01 -1.810062701484955461e-01 -5.350017398800320789e-01 -2.846046416020254211e-01 -2.452611540540342305e-01 -1.048296135110328431e-01 -2.816205458530190997e-01 -1.658613520507436767e-01 2.740969354681074277e-01 -3.609983643941244713e-01 3.807140523552541844e-01 -3.550166431506235898e-01 1.127410361545770900e-01 2.556703808743413520e-01 3.035209773968357005e-01 -2.821238704621605309e-01 -3.327412838456125233e-01 1.700824115170296857e-01 8.691212684542608258e-02 1.306845328097637482e-01 1.207520738919956177e-01 -1.359372742383523069e-01 4.229362668163102468e-01 1.922530989340710816e-01 -2.393798933460015155e-01 1.397854536056530039e-01 1.993956517826735997e-01 -1.607717880044510494e-01 4.446939538818794196e-02 -2.230552854586247968e-01 1.417762525821360531e-01 -4.937528304249549221e-02 -5.372850796504867743e-01 2.155791613488425643e-03 -2.692875390560743598e-02 -1.341921721545331070e-01 2.364674027849652249e-01 -7.753866628363252633e-02 8.696155480414144434e-02 1.520144656621855439e-01 -1.819021791322718296e-01 2.021994488498519149e-01 -5.811167523898275178e-01 -1.048999400667878362e-01 1.242268619551901015e-01 2.525616973857713332e-01 -4.268286209026778133e-01 1.049232320487114706e-01 4.353846197157748010e-01 3.610274805420548017e-01 1.262913821449615503e-01 4.327747155113039201e-01 -1.897926244153144149e-01 -4.171182985664552700e-01 1.395234454651551187e-02 6.473618717788855170e-02 6.515300956991014469e-02 -1.660674915180628680e-02 8.659417722461720812e-02 1.363750033401718853e-01 1.811210324526229543e-01 1.907924241635987617e-01 2.261707949882684754e-01 3.041714552833904572e-01 -2.009737878931818628e-02 4.565257658787722495e-01 6.905776748273546872e-02 3.968686940286894616e-01 2.004765801503794187e-01 -3.195169275184156499e-01 -5.287083182786554980e-01 3.220247195063225543e-01 2.299605642836550223e-01 -5.553471635017375174e-01 1.189202191172726991e-01 9.801701869124648803e-02 -8.030258469869487603e-02 3.927067269551176576e-01 -2.620621041521856501e-02 1.983901603826035975e-01 4.341068973776802259e-02 2.687375138120235984e-01 7.134474149521566333e-02 1.112558558008771292e-01 -1.545855446806005951e-01 -9.605221889486957598e-02 -2.972066820528841413e-01 2.565999236020900520e-01 3.911059110806976435e-01 3.174835097719219679e-02 -3.669767098710502440e-01 3.348140048391355927e-01 -1.672066668706229664e-01 2.179130640354440263e-01 9.291347641997248219e-02 -2.833673371698594012e-01 3.243345913551641257e-01 2.928969731928335318e-01 2.886900790263595695e-01 -5.654781215844527642e-01 1.046737949355384251e-01 -2.840907754756462622e-01 3.101235500639873410e-01 -4.174201145062498841e-01 -3.218812688251289078e-01 -4.673942562736811412e-01 -1.794738065338529476e-01 -1.377408224429372413e-02 -2.778663462937431827e-01 6.392208870726691361e-02 -4.453936032620227081e-01 -3.634759434356619745e-01 -5.728003362615388117e-01 2.164283129948987860e-01 -7.403555409062538561e-02 3.507847227834410830e-01 -3.968218293353898418e-01 1.968137537520338320e-02 -8.944592626267704183e-02 -1.534602982092763898e-02 4.164069484441014213e-01 3.741383251684531341e-01 -1.896749705833664923e-01 -2.745326178329484113e-01 8.197745340387396773e-02 -1.111162839893477805e-01 -6.641006042499654483e-02 -1.246296997512553878e-01 -1.782042798993501917e-02 8.112988201830641233e-02 1.232427159058306493e-01 -5.101654896247588278e-01 -6.776121620165215242e-01 -1.973279947131170720e-01 -4.682643879441030221e-01 -5.894251300451979203e-01 8.298184458402180219e-02 7.774776253737117337e-02 -3.924948840889234680e-01 -3.300925447977739458e-01 -1.784554613553932800e-01 -3.413918634086139381e-01 2.257190893931306230e-01 1.718750432390664107e-01 -2.727052311112699856e-01 2.756492199045399577e-02 1.022550176839890773e-01 4.365514552855509489e-01 -3.120423620880650728e-01 3.496524165002654616e-01 -3.311191150801743865e-01 -2.118736937404414600e-01 -4.013971620782033622e-02 -3.080399893870645611e-01 4.704128371557352306e-01 -3.965980453389630345e-01 1.791876500531538186e-01 -6.346846509458657637e-02 -4.355650554420696929e-01 -3.560797187597999902e-01 3.066818767743791363e-01 -1.880290703124340157e-01 2.240429080070244494e-01 -6.799758119588596161e-02 8.632337843319708159e-02 -3.655663478938488975e-01 1.566342394870837984e-01 -1.884071008978183137e-01 -1.057863546681498401e-01 4.356768737064337788e-02 2.186775772977309351e-01 3.000536591829223165e-01 2.767254705852481567e-01 -4.364019047499380077e-01 -1.833474083064941251e-01 -2.592463739305270187e-01 -4.128862340424657718e-01 -4.539154206434233840e-01 1.072235651300490061e-01 -2.747260220895316185e-01 -1.961335494714350480e-01 2.069031739476144202e-02 1.952191038620149643e-01 -3.056681840684048468e-01 4.815779836343445086e-02 4.232672847764986646e-01 4.245257582659335838e-01 1.960266671935976535e-01 1.015510480218367179e-01 2.297031964542148308e-01 -2.375954081680161159e-02 3.878103888728681725e-01 3.214061572812799139e-01 -2.147894759309006696e-01 -7.909147595265042519e-02 1.163552565989854348e-01 1.560635839492493515e-01 -2.003071587385528707e-01 4.039985778316724785e-01 1.036927661493772246e-01 1.376196044648587621e-02 -2.186905567856259336e-01 9.693872467235878365e-02 -4.171782607092051620e-01 -3.499727390400862448e-01 -1.416861116400754961e-01
-3.514941827510784655e-01 8.132765777655896755e-02 -9.425013501786666525e-02 2.907464215309376043e-01 -1.081124081353683347e-01 4.510966037493326364e-01 3.217169980280504271e-02 1.455831577142279176e-01 5.514822328709649557e-02 -6.410083165461966104e-02 1.076841033236691642e-01 -1.010233132643539727e-01 5.877211628361151546e-03 1.571262926725709164e-01 1.450977003259565357e-01 4.254370980801163160e-01 5.289198283134566997e-02 -6.142489822608013239e-02 -7.010456826770562755e-02 -2.963992398940361594e-01 -3.698627054102990863e-01 -7.751772871385943092e-03 -4.191846419273624891e-01 -4.316001881426007603e-01 1.971317941906474691e-01 -2.157722889327186033e-01 1.553033219814689281e-01 3.080685498772306463e-01 1.277889128028326937e-01 -2.437171719296624961e-01 -2.244482418102946852e-01 -2.981759993972732947e-01 -3.027145484152330979e-01 -8.826465645744502320e-02 3.836249404504477600e-01 -1.715771956508571061e-01 1.684849209278283244e-01 4.667489380166018886e-01 -1.440137826301220447e-01 8.453572353477360746e-02 6.798693881227284297e-02 -3.256697630499774121e-01 -1.346240028264375499e-01 2.465221364685812599e-01 3.489383312193700820e-02 -2.502628258054215848e-01 4.015982527953792514e-01 4.054137459278563393e-01 4.042302384134086601e-01 -1.270726364266602515e-01 -3.603742680762470063e-01 -3.464906154780340586e-01 -2.425097228124831195e-02 2.230803228774358715e-01 4.591226257727439308e-01 -2.326215383679102466e-01 -2.602874410337707722e-01 -2.468003249307199332e-01 3.761968780477671637e-02 -3.754661511640524640e-01 1.978613659805682490e-01 -4.093019770975947491e-01 4.120464209662588750e-01 1.563514988566452879e-01 -2.053003224470195121e-01 1.339240177788915132e-01 -3.564396067484049135e-01 -3.717698009829781824e-01 2.977395212094777754e-01 -3.703304667865751632e-01 -1.099585611239748406e-01 2.589033056392086793e-02 6.266239059036582404e-02 5.873776256837080073e-02 1.923450225122783422e-02 -4.394638813687656853e-02 2.439372661732709113e-01 -3.767306316968325186e-01 -1.098568912931020963e-01 2.730538254739012793e-01 -3.982588429506985217e-01 -6.474635481836814310e-02 1.750516887571716973e-01 -2.983129684415761762e-01 -5.047201860893112124e-02 -1.732392158649634362e-02 3.573483279776483168e-01 -2.485928152366996824e-01 3.390265087503654406e-01 -3.040904590325890222e-01 4.319543111092340459e-01 1.793218371353442336e-02 -2.933187489532830816e-01 5.927880415281795712e-02 1.325649604093998846e-01 3.753579501055390177e-01 1.047648130320036515e-02 -1.504346693506200539e-01 -7.934944496001547498e-02 -2.663481438168697757e-01 2.987740505986721112e-02 2.033018015044408822e-01 -2.181139104854873390e-01 -1.775103008291075424e-01 -3.336299908226107447e-01 2.534615003023751867e-02 -1.699240075048844278e-01 9.065178993718248091e-02 -4.636943636553985115e-01 4.253036790515088983e-01 1.604483356294126584e-01 -3.219238477891637196e-01 -5.702395409515773061e-02 1.413039727159772774e-01 2.035109720364425626e-02 6.696380653762622204e-03 -2.262848537108372859e-01 -2.354267731317666312e-01 -3.064372834402599444e-01 4.213435183948414653e-01 -4.879284716595487792e-01 -2.805511694656858124e-01 -2.038082996620962928e-01 -4.253316314476838222e-01 2.506722715073267382e-01 -3.410376486537802232e-01 -2.749811604729053283e-01 3.014677677045164983e-01 -5.745647981208208861e-03 -2.753144599970647199e-01 4.184574829358304882e-02 -1.845322943467813948e-01 1.799767821873455298e-01 1.787377129055510994e-01 -2.621500927909882206e-01 -2.668219315786867774e-01 2.333125508853043095e-01 2.235499260280640610e-01 -1.797153913863003272e-01 1.476895770921790862e-01 1.851581736467460271e-01 -1.231063066356970354e-01 3.039986137897847107e-01 4.010410417540180017e-01 -1.363034229519949625e-01 1.649722060060879181e-01 -4.699147773214830681e-01 -8.236665921861331674e-02 -4.818281079947127066e-01 -6.501196438192831106e-01 -6.686349945551084417e-01 -5.928741524140342944e-01 -9.487333708061004844e-02 9.724267759882566919e-02 7.496750829020727702e-02 -8.725123871396874009e-02 -2.363727232268960088e-01 2.785770191047525213e-01 -6.252073462505981505e-01 -3.538772999145805565e-01 3.760975627320974346e-01 -7.774117421602337596e-02 5.987757903018709610e-02 3.205236373094068059e-01 -2.789869788559371649e-02 -1.823158233278601020e-02 -3.148600810584597509e-01 1.192850328680044592e-01 9.543986322628944530e-02 -4.393485722127581927e-01 -3.958780458882258380e-01 -7.094152879075725504e-02 -4.277500108545130297e-01 2.798920937756462224e-01 -1.735593494020446492e-01 3.415845033523088881e-01 1.694618605732311767e-01 -6.118891393732802664e-01 -3.742734880243162587e-01 4.793510152912835304e-02 -2.648657500912940943e-01 -9.339999051812306052e-02 -5.780311227471890412e-01 1.787277690810947783e-01 -2.198845334726904910e-01 -3.012903862068477268e-01 -1.140733946086824463e-01 1.427145649312319131e-01 -1.985485957486868847e-01 -3.353042116396572347e-01 1.863595540000478334e-01 1.436231073599104346e-01 -2.265701981084179972e-01 -8.944143859289051257e-02 -2.835096507377433267e-02 -9.649636845078379821e-02 1.727557185108540838e-01 3.960635364655973878e-01 -3.072032598208471188e-01 -1.467995077696065687e-01 2.290503251402501717e-01 -4.463563590725719288e-01 1.018355118416108956e-01 -3.072798577845114454e-01 4.975000842319168837e-02 1.579593560178470246e-01 -5.543068694068868929e-01 -3.093002190760704706e-01 -1.985884616586411355e-01 -2.071463034939011738e-01 -3.450379118170415066e-02 -1.799818109734518667e-01 -1.806105572192570341e-01 -2.556299945839946020e-01 -4.254031538083799524e-01 -9.064278379493848070e-03 -2.543199578335623712e-01 3.551186599669950428e-01 -1.591678480161887177e-01 -1.289962194209131885e-01 -2.909607221395764665e-01 -3.578990516707020730e-01 3.292602628975339618e-01 -1.085348686332325147e-01 -7.821053241438206960e-02 -2.392938745169903847e-01 -2.563725140583543172e-01 2.495859433496821489e-01 -3.637861106021231805e-01 -1.282637420059107025e-01 -4.797340870782352829e-01 -4.981008190793173585e-01 -6.047375314546206138e-01 -7.035180965696247180e-01 -1.580363524747099152e-02 -1.616670120315640002e-04 -4.083374163184158023e-01 1.968799530665703013e-01 1.540767790377337021e-01 -9.771716853269644953e-02 -2.740246225666624902e-01 1.953076129580273365e-02 -4.470955351138263811e-01 1.831711810188248468e-01 -1.866360576952217909e-01 -5.071037066550508898e-01 -2.608380190511655483e-01 -2.288527981812788215e-01 -6.152212792534285102e-01 1.535760795037657278e-01 2.073901223897473001e-01 -6.377429740688463078e-02 3.259449551907289133e-01 2.628370274043762556e-01 1.919911196927250041e-01 -4.053482817581039455e-01 2.847412777728620115e-01 1.110497639766757083e-01 2.375179340111692183e-01 1.420557904819520767e-01 -1.115812759385413910e-01 2.344838051840974213e-01 -4.186055912913820842e-01 -4.524586273272144799e-01 -2.460007993955834193e-01 2.856185523181026253e-01 -1.881607331706944830e-01 -2.553675047151082178e-01 1.366764927933775686e-01 4.859404046780031461e-01 -1.605522656220730038e-01 -5.281029937567337518e-01 1.549719322346090333e-01 -5.391353927826913334e-02 -1.971169629237104481e-01 -1.020095492013739918e-01 -4.072517988122518751e-01 -5.218521748875019906e-02 2.750954847018828239e-02 1.286191707874770052e-01 -1.551577842715227140e-01 -3.191158940503138752e-01 1.459304466388688590e-02 -6.606488486799902415e-02 -1.494519315086547118e-01 4.137831324648444387e-01 2.288612423160108211e-01 1.727997931725150926e-01 1.753374610174030998e-02 -1.649496859506681123e-01 1.918675518982628780e-01 -3.231416859948549325e-01 -4.888514777392226618e-01 2.779628664852462627e-01 1.778857423019051254e-01 4.189440668770498810e-01 6.676415382576198487e-01 -1.674735354602534601e-02 2.892754586104876596e-02 1.351336060652711391e-01 -2.547858816846960694e-01 -2.468129200105805832e-01 -1.751595113338579313e-01 6.426806250888518479e-02 5.333203406782198452e-02 -6.794980682956258330e-04 -4.794695267096606983e-01 2.211854873958908063e-01 -3.727471996889782369e-01 2.515129607393657429e-01 4.375755649802729463e-01 3.681950089234514167e-01 4.449852694147224397e-01 1.579084968399762506e-02 4.167986410458784929e-01 3.081982930767891427e-01 -1.733579552126550127e-01 -2.377501877917571615e-01 -2.189028420521715035e-01 1.937335235486690316e-02 -5.920890604157448556e-02 -2.427186892277512220e-01 -8.216711710469472296e-02 4.426437127425205675e-01 7.885025483066071539e-01 -3.949358012695058928e-01 -1.631267555152704218e-01 -3.529306384965679166e-01 -4.169595415482950651e-01 -5.883369061771568376e-01 2.996729141612836100e-02 -5.604913322960567434e-01 2.622879769135481043e-01 -5.326255921035236846e-02 -4.964339530814899648e-01 -2.970577497473987916e-01 9.785688278297459408e-02 -1.765492528969138941e-01 4.052366562375985803e-01 3.192142949557237874e-01 -2.050230235851072461e-02 4.353880316783314552e-01 -2.892791850894039785e-01 2.497026443047625777e-01 -4.835423852874933814e-01 -2.016572681533589442e-03 -3.495775666465763404e-02 -5.413567500525497955e-01 -1.802977612165212462e-01 2.001687949124347776e-01 1.992884593834295948e-01 7.610122189855412778e-01 3.708309376447894157e-01 -4.597082046893826157e-01 2.105575306301757377e-01 -5.002442502145552083e-01 -3.894088971921380038e-01 -4.963958692623097746e-01 -2.665988612646532085e-01 5.450244281896968884e-02 -2.300313126051462820e-01 3.147814423737964606e-01 -3.317440628850553686e-01 4.269499411913496578e-01 -4.213072697781113929e-01 3.635123437877144092e-01 9.977230943271113428e-02 -4.265670255106279174e-01 2.201370729424901862e-01 -1.352911723132661226e-01 -2.095112694078186261e-02 4.131536572569902144e-01 -3.702295482107664792e-01 -2.696858174164534216e-01 -1.565766869289200725e-01 -6.149027751340574444e-01 -6.398262362081510446e-01 -3.696929428767286030e-01 1.006764283726102882e-01 4.482975102869466433e-01 4.016787828563958551e-01 2.657589422526519529e-01 1.065199668755343054e-01 -3.331598471454281229e-01 2.192414489469728459e-02 -1.441224578825502922e-01 -1.127569031646283026e-01 2.818552662067702608e-01 -4.111755808440628046e-01 -2.660103130659920989e-01 1.987554262915697256e-01 -2.021399070187658575e-01 -1.232190709613497637e-01 2.752605615249180682e-01 -2.216282557444475554e-01 2.915869661305055538e-01 1.696200039004536475e-01 -8.333094211483757507e-02 -6.312658657953092167e-02 2.888260017349162934e-01 -5.120406013548696178e-01 -4.059777612495247823e-01 -3.903261677005947505e-01 -3.740634222565316497e-03 -6.700869780260861885e-01 -4.525739233140270157e-01 2.128178321078990839e-02 4.099314246839564357e-01 4.167808750806480389e-01 1.751359618849652466e-01 -2.845508655262117270e-01 4.417791083150347624e-03 -4.142629879306553020e-01 -3.901297159556579297e-01 2.459981059003713555e-01 -4.505289508873232540e-01 -2.032530097488564613e-01 6.465820310915691704e-02 3.587371396622635045e-01 -2.610824527494198799e-01 5.457250541064136845e-02 8.868690480430407516e-03 -2.546477382285212143e-01 1.146486303696547249e-01 1.983548961236644981e-01 6.817451764548422555e-02 -4.711536585389096699e-01 -1.687504134101004694e-01 -5.507634506000209651e-01 -2.193381037170824555e-02 -7.596551320039459654e-01 -5.330384601089255270e-02 -4.569258477918138328e-01 3.855888276538961823e-01 4.637417710763364065e-01 2.392660816452720773e-01 1.431376908499976119e-01 -3.076081772435289019e-01 -3.322983753383595973e-01 -3.927465252543859142e-01 -5.800684175960870714e-01 -5.418184590261406752e-01 -7.530268837813359172e-03 -3.326920820473331375e-01 -2.330733477854473046e-01 1.523335024505854118e-01 2.040816186693061030e-01 -4.491014686456434868e-01 -2.801171284636790326e-01 3.195142143760664744e-01 -8.841662462285113100e-03 1.011309842502074452e-01 4.114697161396125846e-01 2.580269856830900155e-01 -4.946163710206314401e-01 -2.778551200017876921e-01 9.578476768744229042e-02 -4.270347776919621863e-01 -2.362412081945973741e-01 -2.991529456009079935e-01 -3.603241503081913710e-02 -3.562395957731496754e-01 2.886326294030872597e-01 -2.489532521426087441e-01 2.686449288557437032e-01 -2.593767883292948384e-01 -4.887712382998352645e-01 -9.536417071364595988e-02 -4.194769363635414972e-01 -2.684891146209890667e-01 -5.181864873302987062e-01 -3.672951934683452158e-01 -5.338997985009866776e-01 -5.928665951694106484e-01 2.422828811857818399e-01 4.159367472617379186e-02 -3.969666316661035199e-01 -8.995578397494294332e-02 -4.623456559579224301e-01 1.104322134244744569e-01 -4.432807283002686560e-01 1.249001663652740401e-01 -4.868006889370841139e-01 -5.608901435418619519e-01 -2.050297839394530919e-01 1.625656772265748340e-01 -8.779004689966543595e-02 -1.278973705071118072e-01 -1.103335479278352987e-01 1.447933799946911626e-01 4.293145393255236031e-01 2.611518977482215620e-01 9.673234771336650106e-02 -3.876457567571306440e-01 -3.830786991266955654e-01 -3.551291733664136419e-01 -3.345285177474567884e-01 6.404962329823837841e-02 5.252200129518364707e-02 2.333911054136552157e-02 2.334304008105197725e-01 -2.033113435131942981e-01 -1.967569686723565359e-01 -3.287850385398422004e-01 2.993690923772718837e-01 2.219268822744700498e-01 1.133256488512862509e-01 3.608754815742973854e-01 1.630371980653851083e-01 -3.906312156688628856e-01 -4.706185551473467954e-01 -1.711668382900183860e-01 -5.204235150190562598e-01 7.443219054361728537e-02 -2.436470467843554477e-01 -1.319412040391162999e-01 -1.640014305201139277e-01 2.019787716347664075e-01 1.498096687672173695e-02 -1.699140385225449690e-01 -4.231045203788416087e-01 -2.238697293883395723e-01 -4.508086418474075985e-01 -3.857886830906310793e-01 -5.725343683971750863e-01 -3.058939802333935920e-01 1.673792496209765834e-01 -2.832900328939767960e-03 3.718876756740729927e-02 -1.393010604061993007e-01 1.513909940307815727e-01 -6.171887798159877980e-02 -2.944982948361882236e-01 3.752064672417375069e-01 -3.459793342148103634e-01 1.090960913226120127e-01 -3.588483111330181830e-01 2.755454946601719746e-01 -3.407660070961801013e-01 -1.333087553906617262e-01 -2.943099065679328219e-01 -6.100113280138206306e-01 -1.296707855938969145e-01 -4.423798693535353488e-01 -1.323632989590624032e-01 1.605587201259556784e-01 5.118409477908295591e-01 -3.465774174449444134e-01 2.952458621901008495e-01 -4.020439153559558498e-01 -3.268321364440144317e-01 5.506318747191505346e-03 1.966386368918937866e-01 -2.033477837791958787e-01 -4.498023340497896982e-01 4.418369750732676349e-01 -2.768471447812299591e-01 4.323381989626653987e-01 3.919709985608903491e-01 -1.965740904251951082e-01 -2.774734240191917278e-01 -4.467001975220666332e-01 1.481461217188692892e-01 -1.669807449952437628e-01 6.547696553218474921e-03 -4.231060130573744416e-01 -3.820067057173870961e-01 -4.578727116473831904e-01 -5.312677271149479630e-01 3.984933319806142626e-01 1.037453832076645904e-01 7.888860577244453942e-02 -2.493622563003035086e-01 -2.524965618661015321e-01 -3.728874395286159160e-01 3.363899151864008404e-03 -1.385536553821742345e-01 2.254485448581851348e-01 1.197206986261098172e-01 -7.605976990105983715e-03 -3.050519766685390599e-01 -4.348353602148206654e-01 2.791402117070068689e-01 -4.034853950929317423e-01 1.711766648190612694e-01 -4.055019623827902930e-01 3.179753462865004265e-01 4.048376859811227413e-01 5.111582736186055798e-02 1.321883808909793956e-01 3.251636249550594604e-01 -2.281455996046472257e-01 -4.616651163640690947e-01 3.096873219420655521e-01 1.157321672478450469e-01 4.325825351984979306e-01 6.663699258037433792e-02 -5.900983595343144844e-02 3.504178877625997723e-02 2.950369134069358301e-01 1.867010920902829330e-01 -7.793974588477398276e-03 -1.688830561010333242e-01 -2.890812399960859813e-01 -3.563163523644081732e-01 -2.786247855616502678e-01 -3.793790358120930351e-01 -1.048605897238489987e-01 -3.704852456734425425e-01 -4.457433174934900544e-01 1.374871631200818289e-01 -1.590907094708574054e-02 9.806127371638234669e-02 -4.274951990186912631e-01 2.115047050685243679e-01 -2.518169866128864287e-01 2.088322896426459407e-01 -1.566038100570043279e-01 -2.607585652881105331e-01 -4.396016426582212144e-01 6.321144827543178843e-04 3.417654039724051240e-01 4.506671913188108752e-02 4.298061840629060493e-01 2.154207661671080909e-01 -1.628823246853343398e-01 -4.727437791794157282e-04 -4.705326190846462753e-01 -4.129821587038718933e-01 -2.673252673720736827e-01 9.652360820852357026e-02 -5.430751372888452666e-01 4.979136546825442822e-01 4.573034609718253374e-01 1.487572683693674444e-02 1.759309354410182047e-01 -2.451221999028155851e-01 -5.318500385918274453e-01 -3.436780793207801915e-02 1.945732350665342336e-01 9.587208899529298112e-02 3.045319551394481405e-01 -3.090730377131248874e-01 -2.435995711757337201e-01 -3.263984506639215355e-01 -4.213985259538842731e-01 2.698817112259040418e-01 1.225843307987585784e-01 -1.015269484668066130e-01 -2.865988777717654035e-01 3.226851560432076327e-01 3.009034388254347991e-01 1.406462958941474307e-02 2.520084437763540075e-01 -6.832666965940201349e-03 -4.697774485741573192e-01 -8.729991859075524052e-02 -1.657175687252201157e-01 5.742602747149710973e-02 -3.114879718631684558e-01 2.359587417618548844e-01 -3.480047469080418399e-01 -1.007279116954819392e-01 1.406712451707170797e-01 1.073240588952383279e-01 2.517755669359189596e-02 8.598710694492152362e-02 -2.251312083429274913e-01 -4.266191335583045530e-01 -2.371127580779644195e-01 1.540827436541159501e-01 -1.754009845875829365e-01 3.000925604413701153e-01 -2.053375664401885514e-01 3.499828289328095754e-01 3.993561788263423340e-01 -1.172968887319387477e-01 2.736669437876848576e-01 5.038367418132985026e-02 3.283911809708415785e-01 3.743834042945577423e-01 -1.788365905882639550e-01 -1.292374804955710443e-01 -6.152097860181512390e-01 1.020145973382957511e-01 -6.221204513866617214e-01 -2.205675097338334056e-01 1.438526009364162472e-01 -2.714257542251232724e-01 -1.966061690149179253e-01 -3.490511500914459941e-01 9.142506379522848114e-02 -4.390853133643287109e-01 1.464390584155663144e-01 3.819291051680026028e-01 2.298576143465075883e-01 2.279199855341789427e-01 2.205566654501420754e-01 1.997372367450862829e-02 2.577017603458766626e-01 -2.713722352005956129e-01 3.713290124314555518e-01 -4.588259020567116431e-01 2.317063482852365630e-01 -4.365964532379761343e-01 3.898000076461682895e-01 -1.717926793729123991e-01 -3.953533959487433025e-01 -1.018542591188479202e-01 3.100410294703368486e-01 -3.775463512875149724e-02 -4.312755090958323573e-02 -3.744731431989396508e-01 -4.535178334012219259e-01 -6.850363925069950788e-02 -6.275695376963263961e-01 1.785447210658857864e-01 -2.061552531730298787e-01 1.090435574365950649e-02 2.492224233247339327e-01 -3.100642314911003505e-01 3.055968657937786492e-01 2.887856693193964763e-01 -4.093019539051185318e-01 -1.831188165925985711e-01 -2.562730989918567959e-01 3.038739070452167734e-01 -8.562776509462859120e-02 2.068902312655899745e-01 -1.868259450021395041e-01 2.000407736092339739e-01 -2.161661468621836057e-01 3.195047394830123899e-01 -3.331774205420175439e-01 -2.367153739528166448e-02 -3.143427447540089736e-01 8.969278304215151654e-02 -5.097267245493182219e-01 -4.031001827990016162e-01 2.408851580195925379e-01 1.101173864120605361e-01 -3.748954493071247063e-01 2.206225879336060902e-01 -4.513305898012966444e-01 8.199992337302212941e-02 -6.885013212579878250e-02 3.074777637772345418e-02 -2.028987107303516502e-01 -1.812832419736120082e-01 1.841131744773426837e-01 1.048669650738135034e-01 -4.695638422663367395e-01 2.034092014791459013e-01 2.751080128503340938e-01 -3.321702400290058588e-01 -1.467267361544120075e-01 -2.848584034347079186e-02 1.199415462567157975e-01 -3.134111272814474325e-01 -3.852853934357377552e-01 -2.371934529512786938e-01 -4.117191135027766236e-01 -1.936812983719001791e-01 4.070846443060782693e-01 -2.037812572072357775e-01 -1.619765736216332852e-01 -9.692916192830439148e-02 2.541250641267233101e-01 3.878857374175921635e-02 2.840711843407205950e-01 -3.461158621248921485e-01 -1.356609025659872014e-01 2.756024466991024435e-01 -1.129562777411954044e-01 3.512526001787628915e-02 -1.674306649508218170e-01 -9.052079882166555458e-02 -1.466450292773000819e-01 1.781622500485140551e-02 3.452382293931877677e-01 -3.420287239976116389e-01 -2.983632218128121072e-01 4.364713358936699317e-01 2.229773056666348452e-01 1.117157461548756725e-01
-1.523900032660163051e+00 1.378654590486891596e-01 1.954072664723960073e-01 -4.199176158105656365e-01 -3.576060039610281516e-01 -1.863765675259452248e-01 9.956531471044056947e-02 4.566407313717443794e-01 1.295861839902352070e-02 -3.397095847083771436e-01 3.572385018454158345e-01 -3.733089242009010600e-01 -3.812840947051743812e-01 -2.991327098514405813e-01 -3.506105327179513953e-01 1.248828770346112858e-03 -9.969140859927089204e-02 -2.609701988171620468e-01 4.299785092342887083e-01 2.808969352521670793e-01 1.525569392983910921e-01 -3.308863185188038597e-02 2.956180699835120329e-01 -6.908883435725614308e-02 -4.638725202786265767e-01 -9.279500893175507414e-02 3.779660933237578568e-01 3.017045411784914366e-01 -2.017630143174942714e-01 -3.286553887235847959e-01 3.282298336903449187e-01 -3.714073839904696167e-02 -2.602500986668890848e-01 1.149173640614131464e-01 -3.219262460056108305e-02 -2.808483353502662094e-01 -3.725535465837996885e-01 1.451505940469746958e-01 8.586888024245623030e-02 4.416809728162837123e-01 -3.414697187673469414e-01 -1.562797501952782053e-01 4.013325883917885917e-01 -9.939431341463275671e-02 3.973092981602837082e-01 2.197947846070525124e-01 -4.426274198966521078e-01 -4.899722429019284786e-01 -3.217434029563220332e-01 3.169773467710489401e-01 4.602459791225441688e-01 3.728188907555802789e-01 -1.295839241294528543e-01 1.432487217469308738e-01 4.486123993307172264e-01 -9.483433391943119073e-02 -2.032554802147349543e-02 5.915793118906546161e-02 -4.512497831103368107e-01 2.815686719650103975e-01 -1.666462128035555157e-01 1.019942465680215293e-01 -2.105326433429412503e-01 -4.268064926264951708e-01 5.890002967679712487e-03 8.169990321627562668e-02 -9.985989251087630525e-02 -1.196625325067832424e-01 2.600191015548330431e-01 -2.582820305056890420e-01 -3.136281976642019131e-01 -3.971682419257062391e-02 -7.563332066630387707e-02 -3.726604758187770927e-01 -2.169901542136968564e-01 -3.239864917323962423e-01 -3.632437743060450419e-01 -1.786593240976322161e-01 2.455337977768160540e-01 3.394890309634867043e-01 -1.598913332640708729e-01 1.207791935206552758e-01 3.308290525530706017e-01 -2.282172155059740692e-01 -2.536365009995074082e-01 -3.259220894426226867e-01 3.056323699627930823e-01 -4.307054601773434577e-01 3.110977857851038864e-01 -1.463920334435926396e-01 4.427873773031000548e-02 2.359437811856691658e-01 2.836988927165641217e-01 -4.216380554881066223e-01 9.410515919921901007e-02 2.541382826730447797e-01 2.554093279327243060e-01 -3.870013977617369205e-01 2.830263377128236502e-01 1.865224806139309799e-01 -4.481108608377132874e-01 1.541628800644110342e-01 -3.887428350612754935e-01 -2.660312331698860278e-01 -1.559343030831410737e-01 -6.914799917045387490e-02 1.904713133591516561e-01 1.031875762444751793e-01 3.428085753124837098e-01 1.759167396923896065e-01 6.898815196056912180e-02 -2.554117135021578000e-01 1.945893268239837909e-02 -4.282312508389975458e-01 -9.182459893434678777e-02 -9.174515485041924434e-02 2.183983261129341102e-01 4.269598420132401095e-01 -2.127914158133681691e-02 1.677633326682567705e-01 -3.586338629666005473e-01 3.419187060231806408e-01 1.876839766156656042e-01 2.719293939209155297e-01 2.268611955893370946e-01 -2.463471010201224720e-01 3.317472946078980356e-01 3.110744748186438646e-01 6.710330649795523406e-02 3.231235341420121004e-02 1.594500282260109814e-01 -1.314419805274573139e-01 -5.013288481577258260e-01 -1.550816725322175238e-01 9.369323786021417633e-02 -5.072428954363672471e-01 -3.775755025771775353e-01 -1.979646733335528319e-01 1.047618328096396045e-01 3.136399183136890367e-01 -1.087550321699276568e-01 3.518586316229509459e-01 -1.612839255630015844e-01 1.436285344022060761e-01 -2.314570540624975165e-02 -2.518374462437659167e-01 2.511332084345311300e-01 1.093590083478469394e-01 2.299971072032516717e-01 -2.346799125410161946e-01 4.089872048892971290e-01 4.618465578145076189e-01 -7.692834434304406110e-02 5.121422500988306314e-01 4.278498097519372045e-01 -2.031465552919885786e-01 8.860041139698218715e-02 4.736106302290638004e-01 1.920074459629398655e-01 1.589070623233848345e-01 3.588295167967116006e-01 -3.560266529005221003e-01 7.036315643697638178e-02 1.456678700173117125e-01 -1.025303401911812906e-01 -1.382477291688704868e-01 -9.365757522292675330e-02 5.728723322979502319e-02 5.338200450391774633e-03 -5.793095528356053542e-02 2.701333416043575353e-01 -2.128288124715781438e-01 -7.324635457667960647e-02 -3.264762657565019044e-01 3.285815472608505372e-01 3.138155862216520098e-01 2.827842481203495795e-01 -7.719562177951806714e-02 5.294214210956587063e-01 -4.350727786031150304e-03 5.855600332076271730e-01 -9.374571264122569247e-02 2.191861946815277518e-01 3.980222635686883614e-02 4.455576501978541493e-01 3.331096258316277314e-01 -7.922957116214063289e-02 -2.589575131191504745e-02 -3.365042925092455728e-01 1.405103969272260556e-01 -1.895487936017040825e-02 -2.424905341482494828e-02 -5.322199695896923100e-01 7.674628653154907942e-02 -2.794682680164877753e-01 -2.020552183164376833e-02 -1.384697926855831263e-01 1.205926991675065618e-01 2.251044061326399892e-01 -3.838406625319874532e-01 -3.458169329645457979e-01 2.753537326381936268e-01 4.832002824413581671e-02 1.961083979010122824e-01 4.250366522435491262e-02 -2.367215302117075537e-01 6.245561758437453981e-02 2.640433660252069492e-01 -1.891825630423911164e-01 3.061649361552407425e-02 2.067932845674392284e-01 -9.112892678401325608e-02 1.659556270497373684e-02 1.399544085546146621e-01 1.767027326082223904e-01 -1.116444845958914911e-01 -2.325699790179444060e-01 -1.270462430232398021e-01 -1.336792996841166814e-01 1.427442770985770659e-01 -1.792370286080552724e-02 1.884601003433882815e-01 1.351143742783282864e-01 8.273227536781845026e-02 -2.221619570844388381e-01 3.025920994470177039e-01 -4.519361134086887222e-01 -2.629508456506631786e-01 4.411667417402024838e-01 -2.785523879741898523e-01 -2.690826453085414238e-01 3.368683773750601462e-01 1.752407058889371705e-01 5.751996265318761736e-01 -2.941016710349531049e-01 4.601385355572540914e-01 1.990260229500801781e-01 4.543244781970549179e-02 2.857152041303850920e-01 4.169099694518247495e-03 -3.180634029858808720e-01 9.926222938858528244e-02 -1.697623773053650448e-02 -1.275650415258575421e-01 3.233954329725319266e-01 6.918207364010345306e-02 -1.695862046121431044e-01 8.461426872104782504e-02 -3.111850487472710425e-01 2.022246116441395458e-01 -3.131804076296220152e-01 3.039669935987956428e-01 -3.525287131380073213e-01 3.117520617641703073e-01 9.745248458610776543e-02 -7.864036577117670956e-02 -2.067332937951564809e-01 5.123852277674292299e-01 1.999895854802162531e-02 -2.427192955378352363e-02 8.174538151439940392e-02 -4.393453239593965165e-01 -1.559791964192274727e-01 -5.011533933927478923e-01 3.233378765115624831e-01 1.226584789753808608e-01 2.432750366254553542e-01 8.729323643590899962e-02 -2.931664310864343648e-01 3.401259258635824095e-02 -2.590328835273573993e-02 -3.316947251431243693e-01 -1.739338306882152740e-01 1.025516340290194839e-01 -3.776198849458786144e-01 7.147964104566573162e-02 2.675273024132477362e-01 7.516500824481868459e-02 4.571213080505497767e-02 1.362011219118487992e-01 -4.652763262083625118e-01 3.380733701666155389e-01 3.977612650961992458e-01 -4.351061206547942040e-01 3.774207566699403493e-01 -1.085229134301203963e-01 -5.368049252886657186e-02 -1.692190954583567275e-01 3.912118111932162690e-02 -1.833372443869901447e-01 6.149055570773551138e-02 2.153923367158792207e-02 -6.682356628453607339e-01 1.093022150257929107e-02 -6.337365623762739597e-01 -3.885480154662441371e-02 3.181689835294700813e-02 4.402188165105887507e-01 1.457827563137750748e-01 2.258787881152384269e-01 6.728323980434867957e-02 1.464262555702309510e-01 -5.098334074733297250e-01 -4.813445248230834028e-02 -4.512085602329156675e-01 -2.700517889958158890e-01 -4.638345284067434959e-01 -3.568924050579464491e-01 -3.889709899329580889e-01 -1.672759612666806228e-02 6.590498352688238526e-02 7.749832159324122893e-02 -1.135996913333140942e-02 -2.860541972423205070e-01 -6.039831681595868584e-01 -1.557305447256744080e-01 -8.449248201209828002e-01 -2.724548538894129845e-01 -2.394830952378052269e-01 -4.059098883816447678e-01 -7.012329491547010241e-01 -7.863924901261399869e-01 -9.738490929063845503e-01 -7.306113764637307550e-01 -6.156154401423238332e-01 -1.112780154645363201e-01 -5.719574340748773827e-02 3.262217732228190892e-01 -1.208556768830511829e-01 2.012743255726851255e-01 1.794027727140022066e-01 -6.505218306829192443e-01 -1.072385899099938672e-01 -3.871315484539570306e-01 5.206500933876118120e-01 2.521393435361145019e-01 -4.122301203955888727e-01 2.989331522499192872e-01 -7.363772559117640060e-02 2.765867016589477756e-01 2.268677469173156491e-01 -8.676982688549817607e-03 -2.539782930076049314e-02 -5.093366061220278018e-01 -6.105665838692895253e-01 -9.854759812701829880e-01 -8.896173918608991649e-01 -6.479405137859881592e-01 -1.024054432851970065e+00 -6.041460709858886835e-01 -7.984004910028800195e-01 -6.708867720351368025e-01 -3.796640698869436781e-01 -4.608977400553552206e-01 -1.394315251452495352e-01 -2.983181358055056465e-01 -4.632894793511443954e-02 2.179233285487187574e-02 -9.032784765523121928e-02 -2.026159228035538384e-01 -2.292256796195271396e-01 1.907891727701462592e-01 3.890064037275224318e-01 -2.798447084706991439e-01 3.237823805566150681e-02 -3.756042297547261266e-01 3.325594610128077555e-01 1.118450938192828564e-01 2.561954192162073651e-01 -2.840338235626000407e-01 -1.806653099405117757e-01 -5.467326841197788223e-01 -4.496179635369623728e-01 -4.967801641446132344e-01 -1.106761172826371764e+00 -3.800678970908147325e-01 -4.829238129218581532e-01 -3.068097067038923556e-03 -4.932490266399476297e-01 -3.546008541800967917e-01 5.519269480156853425e-02 -4.072733827935965389e-01 -7.524176596142387319e-02 -1.609683044169301150e-02 1.585070269015225464e-01 -3.785125195447830992e-01 -4.118592494235907564e-01 -5.069746959629916061e-01 -3.803673125094867991e-01 2.646872841460080616e-01 -2.064141884676336247e-01 2.871357674717774922e-01 -2.331694353964306188e-01 4.274485214501818620e-01 -1.852271884990761563e-01 -2.898732293948446115e-01 2.400129797778804142e-01 -6.193174495593568585e-01 -5.616598614835163067e-02 -5.759773478665717317e-01 -3.650285785530874572e-01 1.144584404604286759e-01 -5.845871989748954722e-02 -1.849026825338544455e-01 4.174020047927648469e-01 3.029922434028405887e-01 6.444374115450426932e-02 1.711488200126566606e-01 2.045256866495596404e-01 -3.661747649392783216e-02 -1.354307378823195185e-01 -7.378055631215166832e-01 -1.583281349978207520e-01 -3.170873291062195620e-01 -2.700181240206843691e-01 -2.017637753660499189e-01 -1.993320796270895978e-01 1.280373118056429144e-02 4.032686913753334990e-01 3.830888121563633675e-01 -1.504152821033445941e-01 -4.500082733936835444e-01 3.702352845048208496e-01 3.550834860210801969e-01 -7.932226775114811779e-02 -1.219609794622747434e-01 -1.101648459657647988e-01 1.027343578920588973e-01 -2.364693272791989209e-01 2.403390492116113386e-01 -2.789784666024130999e-01 4.265066861201207704e-01 1.202227410057750967e-01 3.637905111938632974e-02 -5.340620315793986189e-02 2.290473323789412874e-01 1.765292035124476841e-02 1.683261010842929672e-01 -3.162925159852052470e-01 -3.991569491338269882e-01 -2.193476396691186603e-01 -3.471172553621143519e-01 -3.909250148513424561e-01 -4.372906540906056905e-01 -2.262113440952835119e-01 -4.880061133492581416e-01 2.916545657513262557e-01 3.510450206800799222e-01 -2.504924129170676972e-01 -4.087718923566468487e-01 -3.669719032343381482e-01 2.910881826087432511e-01 1.364503992508778879e-02 5.781084103330362822e-01 2.890998554770410345e-01 3.441636133181761870e-01 -3.156316033898383666e-01 1.843701026138454824e-01 1.583603039221462561e-01 -6.057924121381669247e-02 2.776305092886778847e-01 4.433421782729618510e-01 -2.459641981809217517e-02 3.722094382447489469e-01 1.947809591786592298e-02 -1.553202909901043038e-01 1.860491830498655075e-01 -2.306951520873107009e-01 -3.359175817419201016e-01 -1.549116335241469168e-02 1.758281974050066032e-02 6.615418953988766448e-02 4.698742719571360471e-01 4.201052046646533422e-01 4.107108713865639804e-02 5.938877136325692446e-02 8.222033731308997853e-03 3.123654576994260301e-01 -1.113943451177101251e-01 -1.145291701758391623e-01 3.189831883076411634e-01 9.113660953173441381e-02 5.920468248830894620e-01 4.114523935797999576e-01 2.537956028977641498e-01 -2.963604931573259327e-01 -3.066007506936695853e-02 3.823836155736509701e-01 -8.583410225872409316e-02 1.558240531400615636e-01 5.410017748451143582e-01 -4.097778502356708707e-01 3.428647183818769872e-01 2.188176557372975006e-01 -2.033188771323383437e-01 3.341218274875957239e-01 -3.789806740624173664e-01 2.925816655242684597e-02 6.704904876726174023e-02 -9.406959527587055447e-02 2.001576529373024216e-01 2.313584651633931177e-01 7.601663424884300690e-01 -2.733736611044337850e-01 3.592724982069143147e-01 8.809518076103230177e-02 -4.389071773080224226e-01 -1.096963400708127721e-02 -2.649557420300788779e-01 7.471729626279399739e-01 9.130690996101256673e-02 5.650181742663434870e-01 5.562845405189036779e-02 4.734084566898369428e-01 2.381377461360029146e-01 1.121866789086851807e-01 1.657086657735463153e-01 5.318690621342899716e-01 4.819912724264615589e-01 3.100871907776360237e-01 -1.656931182055239871e-01 1.170749006735191666e-01 2.643236051470494036e-02 1.744849929607407701e-01 -3.744997156504989433e-01 1.350648958594688476e-02 9.419552611899102701e-02 6.681180550709446830e-01 -8.351708927838565055e-02 5.535191780472341616e-01 4.658512591920251078e-02 1.346767038250860082e-01 -1.053468623822019501e-01 4.177020832822375684e-01 1.044382629366538001e-01 1.402315634057658411e-01 -1.561307084035469528e-01 -8.107779456311341171e-02 7.152681537228586794e-01 4.841190982102183127e-01 -4.069061674300371023e-01 2.613355434486168694e-01 9.987050081880237407e-02 3.568645487016600670e-01 3.082777796510781654e-01 1.176081405825948056e-01 -4.776104750899427542e-01 2.419708854840488255e-01 1.161199748237261714e-01 -2.010702246935585323e-03 2.142614525917750645e-01 1.346269650654272065e-01 -8.951104473610586865e-02 1.625942894695606433e-01 4.544817549808574664e-02 5.927140696809751752e-01 7.874157704124643692e-04 5.348815065737700936e-01 7.833430666000947007e-02 -3.819151103867482466e-01 3.323550491679697627e-01 4.126405653613821056e-01 -2.178500217877094858e-01 -4.098034631886355861e-01 -2.965230604195615571e-01 -2.794237190349143155e-02 -5.923987725569846569e-02 -1.887766882651141787e-01 5.938510499032292334e-01 3.913563667756339570e-01 -1.286868100071756060e-01 3.840006275711200789e-01 -1.001945972181988859e-01 1.771080390152790160e-02 2.516927793070256048e-01 -3.100316696387580562e-01 -8.062437804977570788e-02 -1.531705918732051697e-01 5.639549975576197555e-02 8.646645352731546774e-02 7.003764072209531233e-02 1.450933517753379143e-01 -2.913130601338417835e-01 3.445415095572195718e-01 2.054381990194494578e-01 1.715346644588496006e-01 -1.375333627670051739e-01 -7.765621302766652356e-02 -3.705882470147471852e-01 -7.523142787889519623e-02 1.515411725323436154e-01 -3.649139029398527218e-02 4.507023975005058913e-01 5.260787206117683024e-01 -1.436200302463962741e-01 2.082488431572055987e-01 -2.019025870620453911e-01 2.683345947891533356e-01 8.955724934494664613e-02 -2.556585479708963216e-01 -1.248455861295390962e-01 -2.325757837987022514e-01 -5.701840258923672744e-01 -2.017468901378415280e-01 -2.169161638092074740e-01 -1.276454781166092012e-01 -3.652656693288147127e-01 6.809777320316650062e-01 -2.195153788711444454e-01 8.442238063540601078e-02 2.515386715217245439e-01 1.092700480855090667e-01 5.834071304632831856e-01 -1.710065853472168551e-01 -2.166678685207436839e-01 -2.719947586152850483e-01 -3.039195078834692754e-01 2.561226709366027365e-01 1.531087250320189996e-01 -3.827006312134658139e-01 1.389966587205765103e-01 4.368587064415836996e-01 6.904491633210807500e-02 1.484966483701264661e-01 -4.742905119018088478e-02 1.604773210498375291e-02 2.469014161009939201e-01 8.107737921140903414e-02 7.079455954494670578e-02 5.308512347145678129e-03 -3.919772628737115960e-01 5.098231221985072975e-02 -1.374939740636131336e-01 -3.751812229408196808e-02 -3.428454022187082256e-02 1.637755950270257110e-01 -6.642934337577856285e-02 4.462028047901460126e-01 4.769561526144056596e-01 -1.137100819296724824e-01 4.719793057576501805e-01 3.141926592063191137e-01 -6.037089167944899304e-02 -2.891652323459162344e-01 -4.508702064769443130e-02 -3.341554431761893929e-01 2.409441526807302308e-02 4.074002241422313708e-01 3.263564501853254418e-01 6.980086091309699314e-02 1.883968717273105109e-01 -1.888474270121892062e-01 -3.249072829679008345e-01 1.046549364562329026e-01 -2.061061094599711888e-02 -7.272316383907352355e-01 -1.876431350012759125e-01 -3.288376848213900860e-01 -5.193916540965811679e-01 -2.164346164832962605e-01 -4.986425375387750214e-01 -4.167508178301893573e-01 -1.529709228210837380e-01 -1.227618099454435285e-01 1.306842060102284542e-01 -2.467449617182441712e-01 -9.304666546125868118e-04 1.047468356324736255e-01 2.454852902481292065e-01 -4.206846573889486129e-01 3.217919338759737125e-01 2.160386191512665421e-01 1.104739875105121422e-01 4.467554872554065915e-01 2.400362418452230695e-01 -1.258545008050650227e-01 -3.004599303337539273e-03 -3.412138503807463086e-02 1.311826432310335064e-02 -6.546014103267445705e-01 -1.867197943624993861e-01 -2.913470882467395495e-01 -4.436030785895683226e-01 -2.965284624158968652e-01 -1.235869283904947741e-01 -6.545773220246340340e-01 1.397239060151065915e-01 -1.589566743951165984e-01 -1.498829108497898473e-02 5.023592713624117079e-02 1.483458816526080914e-01 -3.993244738549414086e-01 2.778915375352111194e-01 -1.116688742255910610e-01 -1.692779970921021726e-01 -1.908586762581750418e-01 -8.931312173457690851e-02 -1.535589523847651072e-01 -9.550236551407012553e-02 -1.940860083361991006e-01 -3.666957058914406820e-01 -8.175492683226381896e-02 3.067746472104878053e-01 4.031717654574124565e-01 4.403549851613611232e-02 3.478823179165360102e-01 -1.689796907673813964e-01 -1.911026660727049020e-01 -5.690642711478576254e-01 -6.020155927323187495e-01 1.488566164751611298e-01 -9.492370718168384458e-02 -1.146903870601636150e-01 6.094265822144760876e-03 -6.553210257284737272e-01 -4.322351827827727866e-01 1.605914754155429724e-01 2.811285678329107363e-01 -4.106840014198075983e-01 -5.180245811387126365e-01 4.314053419161242853e-02 -1.923397080029639605e-01 -4.037712988170551465e-01 9.859398338021949093e-02 3.657620185207110519e-01 -2.017668330223106599e-01 1.239500076802297346e-01 3.442032590760292221e-01 -1.488428885351656128e-01 -9.055930772022108277e-02 1.165428472699325119e-02 -1.235420721396321558e-01 2.695341763938048918e-01 1.342164058853119457e-01 -3.824254063398382919e-01 -2.487778674538477230e-01 3.534464599648078909e-01 -3.378675401544927182e-01 3.048406872568079073e-01 -7.515594999538913884e-04 2.166371935884083277e-01 7.085633378960719264e-02 -2.530269328931945144e-02 2.573415993989601747e-01 -3.512744689854258584e-01 -4.895027719692957024e-01 3.393422970196167676e-01 -9.536972309243992030e-02 3.588065993063933590e-01 -2.663887014016932953e-01 -6.070951648629824976e-02 9.398802090941212051e-02 1.724219641982592255e-01 -7.910191875408054130e-02 -4.641478387252943594e-01 -4.607194573801594584e-01 1.195121447043716034e-01 1.978901755017137554e-01 3.556614086036397615e-01 3.440987847463181648e-01 -4.677076780823620772e-01 7.033878960509970524e-02 -1.344047931876633240e-01 3.327652432242335090e-01 -1.996087161727055914e-01 2.160669327756098435e-01 -1.768117806541112669e-02 -3.053353260327610896e-01 -1.634619682564471543e-01 -4.445259781744761440e-01 1.370989601942216099e-02 2.884487221028159132e-01 -1.342893842435022300e-02 -1.443761161730446607e-01 1.558775923277328640e-02 7.700138847723962676e-02 -2.574634119732973070e-01 -3.546960357780183370e-01 1.250519429952212103e-01 2.246515190951063612e-01 -3.584336878318450936e-01 -1.701185574938364128e-02 3.457206997939640120e-02 7.986442935730525550e-02 -4.288704380365452318e-01
-1.872218585117926493e+00 -1.270354366120803880e-01 2.301219633283489163e-01 -2.639642573688090188e-01 -2.230937226714638233e-02 -4.322537330749801066e-01 3.589992463952911272e-01 3.504154423655176931e-01 2.490330658605851566e-01 -6.829913200734166745e-02 2.177710128333242290e-01 2.854452292203705221e-01 2.776825885250204795e-01 1.661478882464650919e-01 2.784651628049156780e-01 -5.880222711787291834e-02 2.654566378383342307e-01 -6.768178589093212794e-02 1.428091014740216491e-01 -9.936264596047668374e-02 4.218352684463605451e-01 -2.881601087629429570e-01 -3.363761636468090566e-01 -4.156126963498370519e-01 -1.343620409321481801e-01 6.072718414012604968e-03 1.389865082208531777e-01 -2.711207643833529399e-02 1.101928412682390279e-01 2.143229823566188963e-01 4.236094205916165478e-01 3.018627599780017157e-01 5.317888106952694399e-02 -9.286469776766349826e-02 3.256116513868178020e-01 -3.751584940046910621e-02 -4.084649179216368053e-01 -1.841816553888417363e-01 -2.521076227286443983e-01 -1.421649783043631987e-01 1.359097624051490982e-01 -3.313540130576706801e-03 -7.291401233416111571e-02 6.054669464409385277e-02 2.852877657132431993e-04 1.504464979353181409e-01 -2.117131097782950222e-01 1.399313315504676358e-01 -1.022169391704736280e-01 -4.548329555345803077e-01 1.663751461295605652e-02 2.513470430119847943e-01 -1.109096557140507588e-01 -4.440262487636099653e-01 -1.563823625085178914e-01 -1.431617062641657445e-01 3.817721842433847157e-01 -2.325778533891759425e-01 -2.813407002010222535e-01 -4.587077276166233730e-01 -2.662103098915955535e-01 -8.085131217720424590e-02 4.184605192601233425e-01 -6.708625066475618071e-02 -3.810264661980161671e-02 -2.477915208409871839e-01 -2.401676239581752581e-01 1.422165287039229772e-02 -7.926718088182557742e-02 -4.205546052147600133e-01 3.108151944516718834e-01 4.216611065610228470e-01 -4.970419635915759859e-01 1.563407446141591162e-01 -3.804802871098457440e-02 -1.094371123347833048e-03 2.076381657317226404e-01 2.789147263025394397e-01 -2.299356846724708858e-01 1.484328915285673955e-01 -6.368897315553026517e-02 -2.080498874818682564e-01 3.550612026143624457e-03 -2.903131684887145791e-01 1.929548582410190449e-01 -2.999665231619788042e-01 -2.827406630906421636e-01 3.633502450733069322e-01 2.148829065005111172e-01 -1.111480937923492035e-01 -4.010187447733566668e-02 -4.345360295676952145e-01 4.610697264072082802e-01 -4.967788140852817391e-01 1.326115399531119510e-01 7.279982729312582668e-02 9.983355036113150671e-02 3.360601933930324470e-01 -3.527374052231886381e-01 -7.312958345153269812e-02 -1.279986502587061314e-01 -4.837405539394049742e-02 -4.154544900153153003e-02 3.795830086565189498e-01 8.505209826255177852e-02 2.627863549338974036e-01 -3.761029372265770609e-01 3.977181773314361068e-01 -4.138096702992546394e-01 1.440856705270842086e-01 3.367883310643756678e-01 -3.778845398094790586e-01 2.996756666203160280e-01 -5.407176918493879214e-02 4.135968138896596313e-01 -2.138072685475340129e-01 1.319725588633707536e-01 -2.744895727273171104e-01 3.555168730873513316e-02 3.078910704476001126e-01 -1.283408270420183239e-01 3.303928293135772187e-01 -2.069557365824353234e-01 -3.244844243868577061e-01 5.386394537400446270e-01 7.359017594549935315e-02 3.751351930524533529e-01 -2.610010647775522497e-01 -7.233861347496114980e-02 1.748742054208369534e-01 -5.080429278849332153e-01 1.952670801967415493e-01 -3.557617939166093229e-02 -1.671724061754800983e-01 -3.186300185271203622e-01 -8.995640109864629086e-02 -1.094444000008150814e-01 -1.289818635875557562e-01 -2.319288593453781577e-01 2.900111977610638214e-01 1.022300704226091761e-01 3.857159915434669184e-01 3.221474903851053728e-01 3.890321729160682307e-01 -3.371824047612919650e-01 -8.525098329210246961e-02 5.569600929407375611e-02 4.278519209907587911e-02 3.873226834693784260e-01 4.388909834089564921e-01 -1.774559457056855971e-01 3.018577162963652638e-01 2.977524454962514611e-01 2.900577334396292062e-01 -3.481387611922480141e-01 4.378667026281308217e-01 2.664233508223231572e-01 -3.105806188651213384e-01 2.371544264250454725e-01 -1.725008156064900267e-01 -6.638049751556462930e-01 -2.850817494993420492e-02 -1.017576293522353126e-01 -1.037633570729510762e-01 9.006817668240157948e-03 -4.341292234796662042e-01 6.660996298837976171e-02 2.469336717785523549e-01 2.066460451671488785e-01 4.653199015290843676e-01 -2.978378408408426936e-01 -3.456392785870509021e-01 4.463185730765613646e-01 -3.593216897988156522e-02 3.113962814713014948e-01 7.199702758320848661e-02 -1.490616411526608440e-02 1.406726953830679527e-01 4.838540047015791115e-04 1.837552755568865048e-02 4.201811153414900524e-01 -1.206648416229623294e-01 2.770374156024975609e-01 -3.075261031892182473e-01 3.204975989614748388e-01 1.760536501935123718e-03 4.845545166488024469e-02 5.501776703334524538e-02 8.173520126714836631e-02 -5.713965106004819106e-01 -3.581584419506775863e-01 -6.996265331876786453e-01 -5.783763378740808259e-01 3.317107941364155071e-02 -3.415242909411259631e-01 3.348828058846590183e-01 -4.278318594835933131e-01 1.271048066204772953e-01 1.572310598956319083e-01 -1.035805988908804209e-01 -7.970242074119057718e-02 1.706533031246276200e-01 6.152372330598006034e-01 8.483624692546717916e-02 2.294251908343469537e-01 -8.013440437433325125e-02 3.936522941553161764e-02 -2.001051660853813696e-01 3.104430003464092938e-02 2.534063745723729166e-01 5.706277726675713646e-01 -1.249066559001545638e-02 4.023648089674627948e-01 -1.420636470016203579e-01 2.415783296274170988e-01 -1.630429336421876652e-01 1.087846015027014307e-02 -3.512731662789959630e-01 -6.388279103896589428e-02 9.647855510576668070e-02 1.023389927552978279e-01 3.322523318404350945e-02 -1.841419531255658881e-01 3.310043093539951076e-01 -3.814825440836404624e-01 1.074943318369017686e-01 -1.373687503947032366e-02 -9.858825199724922939e-02 -5.286541714154421867e-02 4.351095377653267371e-01 -3.831616034768763335e-01 3.396106567326335202e-01 -1.777802810091717589e-01 2.310853621977143890e-01 2.903779607458877865e-01 -2.735505276947579056e-01 -2.892012485764821061e-01 7.812838787995501910e-02 -8.623303719152734803e-02 1.161995803429645285e-01 4.242990270695653487e-01 1.393165327334476844e-01 2.020322228249811503e-01 -2.546892969556394659e-01 -5.009994777111447667e-02 2.247434320024487286e-01 1.114794632938222868e-02 8.414963863872092914e-04 1.831088871405940621e-02 -5.630373108506044888e-01 -2.733960394439807762e-01 -2.362561165507952032e-01 4.214972838532076715e-01 -3.028660435121213745e-01 1.976884068832306107e-01 -4.027327820618241128e-01 -3.581588823451315462e-01 3.884338075869915863e-01 -2.869015074378755137e-01 4.390698248531556269e-02 -3.261470347477812282e-01 4.211108824813186019e-02 -2.109303194729878206e-01 -1.556525807017153096e-01 -2.224206551011673472e-01 -5.924896646730511973e-01 -6.807302052748827326e-02 6.533639645830854881e-02 2.711529852020271858e-01 5.121092395567649058e-01 -3.276571812894183977e-01 3.256258415851331356e-01 3.570842466001187820e-01 1.621827816680547207e-01 4.092730615173307274e-01 -2.501291574934482731e-01 7.259965375687084908e-03 -2.455077851409616374e-01 -4.613620117185610603e-01 -3.869181890901323695e-01 -3.603488561188001316e-01 3.327950560255984458e-01 -1.345114670449921168e-01 -1.170589708782244359e-01 3.880818013993619919e-01 -5.617842936417107719e-02 -1.835175081014604470e-01 3.459037348199526241e-01 -1.180766115218044032e-01 -7.193828166090378007e-01 -8.029045629408869678e-01 -4.108017551630947506e-01 -6.762533961098489144e-01 -6.028812384094677235e-01 4.985984509179410828e-01 3.502957180501246048e-01 -1.271683310408321110e-01 6.064904897955437635e-01 5.969010549097185647e-01 -1.388208102390052212e-01 3.929710497131926883e-01 2.726464050806437500e-01 3.883565146801556955e-01 -3.159652784171169126e-01 -3.355157982949594220e-01 -5.226575055378540613e-01 -3.711533770878038263e-01 4.511804459795855649e-01 1.808693945932694225e-01 -7.736259398484449101e-02 -1.078808121717724361e-01 7.563274111911228587e-03 -1.288849675054077118e-02 1.303280981275510564e-01 -2.935201814511118057e-01 -7.337874321810092804e-01 -4.190607309792097057e-01 -1.852371199143925673e-01 -7.758403908712112329e-02 -8.118309445008964342e-01 -1.877872570866185031e-01 -3.025660127157332735e-03 -9.949183015130387553e-02 4.014223673347826482e-01 8.496875451421743997e-02 2.298180669544915844e-01 -1.399680357446199744e-03 3.176674023113132406e-02 3.263382609773285981e-01 1.920737650023252724e-02 -4.924537337618270505e-01 -3.709406113264419602e-01 -2.543388312228536119e-01 2.712294336590174715e-01 2.726835270581594028e-01 2.011704639695875152e-01 3.256858745081447903e-01 -3.290595160458945068e-01 1.665894085859431495e-01 3.087214250460827980e-01 1.879713426295742118e-01 7.449735249888583821e-02 1.431925332145770058e-01 -3.068955783686581618e-01 -5.433034768786622060e-01 -5.725915385167024141e-01 2.688062499157202467e-02 -4.497392956389035801e-01 1.927278090449701525e-02 2.384356801867223430e-01 2.793201613461354649e-01 8.456646415922497440e-01 1.848076147441600203e-01 1.984238137226550791e-01 3.139684172544390250e-01 1.798952497034213283e-01 3.072117921380110861e-01 -5.465748002702852139e-03 3.249034415753518368e-02 -2.980867834963296104e-01 -4.448995745214419095e-01 -1.769551787344453841e-01 3.907475429293654767e-01 8.310004180363457504e-02 4.624216511077055558e-01 -2.709247693521426026e-01 -4.002694783961657787e-01 -7.046808742961735428e-02 -3.779501662124030714e-01 -3.214583425422665730e-01 1.201413796942344542e-01 -2.205550326013113183e-01 -5.067058346662800528e-01 -1.601332131087051525e-01 -7.555964513293791929e-02 -5.113806022053360989e-01 3.518559622114927898e-01 2.892621170324794488e-01 -1.738910592440693348e-01 -1.518985019235562506e-01 6.202118772549122250e-01 9.739668871556105001e-02 4.928930462518581190e-02 8.515084359408529868e-02 -2.154640340878069271e-01 9.516412358466144750e-02 -5.327707245157990990e-01 -1.143141790698326277e-01 -2.082252367468036963e-02 -1.264935088966983034e-01 3.494618889480488044e-01 -1.112503487280718240e-01 -3.919068661494895522e-01 1.974126732492298419e-01 -3.667557345322889351e-01 1.875882848054638286e-01 1.900943269614362163e-01 -2.457519594038740929e-01 3.389154201176053371e-02 4.647058999732238405e-02 -1.192954004700078896e-01 -5.442868049020417320e-01 7.498155864045608077e-02 -6.304204358062794888e-01 1.310711646437691391e-01 4.952017764791093457e-01 3.528283205750278317e-01 -1.178161729349772729e-01 1.679733842197165816e-01 1.953516439550264383e-01 2.678136959272319206e-01 -4.236232850623157797e-01 3.844217469628916084e-01 -4.941436648341696047e-01 7.615033613372695909e-02 1.011548799381258440e-01 -5.067116146852059799e-01 -3.349191180829618752e-01 4.098470608846771501e-01 -3.158763919717654800e-01 -4.079000754373633963e-01 -2.191775363263594456e-01 -4.630136571713886484e-01 -3.079475175493889272e-01 4.340121946366994332e-01 -1.088968938031399936e-01 4.758118492091178119e-03 -2.664549829775840206e-01 -1.702973278334414808e-01 2.639593387141428438e-02 -5.089597258949869474e-01 6.459734890232063376e-02 -2.853716863647650093e-01 2.276328699468587180e-01 4.365319026446405626e-02 2.163115372428830729e-01 9.368264100198829547e-02 -9.431601543413255240e-02 -7.704286398161525051e-02 -2.139666709127521493e-01 3.302041857800316893e-01 1.743841631768907885e-01 2.282063675829622273e-02 2.955569375041778857e-01 -2.944841492630825841e-01 -2.301396006869148858e-01 -1.905697461808329163e-01 3.569128586406855597e-01 4.429844386569853354e-01 1.239230852454544299e-02 -3.421568360000040165e-01 -3.198885422706919668e-01 -2.594654395166086647e-01 -1.163044247832908801e-01 3.394024124806688247e-01 -5.057723108328923134e-01 -5.556473821624459131e-01 -3.747658525538072327e-01 -3.985319100244126556e-02 -8.934086527988813198e-03 8.842356804555855099e-02 -2.016656792122059338e-01 1.188300533221049587e-01 1.027188067296504886e-01 -5.545842084339619449e-01 2.744325881772453624e-01 4.155616215203905561e-02 -2.774436455357555675e-01 2.689491474612268340e-01 1.237498758476136412e-01 3.675214723628422164e-01 1.717236493669339892e-01 -7.303011834820835602e-02 -5.065754438575187368e-01 2.892696641565778437e-01 -2.710653876548709262e-01 -5.264315450775201161e-02 2.442384909078296473e-01 -2.142896579804745225e-02 1.075800445882246076e-02 1.715278233759706672e-02 -7.634693761887920149e-02 -1.047206147746898297e-01 1.073892521303246583e-01 5.069126456770536165e-02 1.754891975697991657e-01 -6.107992349198633208e-01 -4.157180363203881734e-01 -5.738992959271443928e-01 -4.733887357105716620e-01 -4.834142370991951210e-01 -7.962296315674546321e-01 -8.250484922980964864e-02 2.412240819268310632e-01 1.142282738105170614e-01 1.911329836671708249e-01 2.964445445275676883e-01 6.267379589928153694e-01 5.294009938213257715e-01 3.137771258774034733e-01 4.289211849607960647e-01 -4.732608881737891404e-01 -4.211991367027688726e-01 -1.660795500646068124e-01 -2.057537449268353191e-01 3.112449205140342401e-01 -2.219286863946844657e-01 1.597471274221738680e-01 -1.502881303010914493e-01 1.065757697049107972e-01 2.270692276519386821e-01 2.240701149237627199e-01 -3.634908750650157061e-01 -4.569162146548546022e-01 -6.697799184148517382e-01 -9.141132630762519584e-01 -8.749236913421863937e-01 -6.642193833707572548e-01 -5.313945736938016084e-01 -7.807060257495047617e-01 -3.755549470002941814e-01 8.901058113036028341e-02 2.475567326622771236e-01 1.462175989650977836e-01 -1.458676173068105264e-01 3.071733388176832169e-01 1.360233545117505993e-01 4.275416046866495345e-01 -1.331490767838180156e-01 -1.775334962674982031e-01 -4.097216414366727788e-01 1.139230392246464024e-01 -3.015166988550541105e-01 2.425084805933260812e-01 1.083916802552853942e-01 3.174949616928107732e-01 1.624543646088558169e-01 -4.769960369739036782e-02 -3.064674890969207866e-01 6.230698874238418949e-02 1.810259419862566554e-01 -2.086142350435768178e-01 -1.615384391510930884e-02 -3.873808587829019046e-01 -6.759552500939262076e-01 -2.874699325972689401e-01 -6.892259871709702779e-01 -2.525135968023365929e-01 1.075339883737702201e-01 3.840249917439252925e-01 1.807088706257696242e-01 1.915573422908966456e-02 4.323831491907248470e-01 3.575190864092950838e-01 -7.196184857100129673e-02 2.630532261281379736e-01 -4.516334305264053661e-01 -3.834111553615965895e-01 -1.609485144873906426e-01 9.655556898734682370e-02 4.483532128410369078e-01 1.095526089818020937e-01 1.290395124411078676e-01 -3.349589415407025483e-01 7.569849332808005204e-01 4.814942678413112187e-01 4.932082949817462314e-01 3.937135242208301134e-01 -1.962264441998645692e-01 8.970644686041318039e-02 4.250093086798879538e-01 2.197592868499919638e-01 8.442608952441796322e-02 -6.084302547999741878e-02 8.212833724679893810e-02 -9.280439164064836766e-02 -9.312768937637207201e-02 1.160622902218773622e-01 -3.717792801895281607e-01 9.041704173416113821e-02 -2.477861049206784572e-01 5.092906934948626674e-02 -8.748547382383495274e-02 -7.692066656554226445e-02 1.248450641303800179e-01 -4.806000961876621402e-01 -2.417731832448947182e-01 -1.927281559290612289e-01 2.492790428343350517e-01 -3.713335073178501422e-01 -4.277081724234899629e-01 -1.414858352766736049e-01 -1.313494837961793893e-01 4.389777822882985348e-01 1.805680428511911573e-01 4.996620734278244824e-01 2.725897454457643088e-01 8.310046695940281891e-02 -1.332660927803756834e-03 -3.889006504134555064e-01 2.117395059650165612e-01 -2.584228280313146109e-01 1.384714895033832271e-01 5.901768111671548689e-02 1.366792156737056674e-02 -1.409590032044389374e-01 1.787064807913824882e-01 1.515605534191413750e-01 4.712835109769397124e-01 4.007246484282754317e-01 2.044241901231252656e-01 -4.492563680792306391e-01 -4.292056256341028608e-02 -4.123092460508021029e-01 -4.024991736084180260e-01 -2.930496746969146749e-01 1.937382673033528624e-01 -5.182437855325625065e-02 1.511070320422813751e-01 -1.225482363928819506e-02 1.640827693172667023e-01 7.922970108776135334e-02 7.880346587794852253e-02 1.014521580689111691e-01 5.009857583951772553e-02 1.411856213797348936e-01 8.683835976855641681e-02 3.857782965878105430e-01 -1.306251734589932156e-01 -2.857094240611036118e-01 3.647640285665016552e-02 -2.483534544758677631e-01 2.208888904573966250e-01 1.615059747156320502e-01 -2.490563845159954048e-01 2.917475999806897202e-01 2.393927182726788422e-02 -1.181268013958226420e-01 -3.605487912004755047e-01 -2.156786177923677994e-01 2.415307950136273973e-01 -1.061501007357537330e-01 -2.307376282234053499e-01 -3.896075598163844522e-01 1.533373018511879904e-01 2.069720020060935028e-01 -4.548987594360290321e-01 -3.847480031637719455e-01 -1.410055426350034780e-02 1.678605279498990299e-01 4.123764328682492930e-02 3.622247786613770337e-01 -7.234403548092212255e-02 1.783560980573073718e-01 -6.237809235591761092e-02 3.445304387789762113e-01 -2.380614477947144425e-01 2.186096706260005212e-02 -3.310519957227330834e-01 4.107180219824889400e-02 -5.298836248298380291e-02 -4.992220489574921705e-01 -4.757468275854159212e-01 -5.235640582249712072e-01 2.032995457339914769e-01 -3.074775708077131381e-02 -6.845077945390941609e-01 -2.044041800040030943e-01 7.291314257779897556e-02 -3.405786207963945045e-01 -3.197043331696227120e-01 9.724199699207766723e-02 -1.229934392922022585e-02 9.306718084403096947e-02 1.986898076436204863e-01 -2.078102728501692587e-01 6.324577435151154323e-03 -4.521959643225367809e-01 5.428600209886180750e-01 3.245050862493473742e-01 5.682628635437007025e-01 5.641534030936000699e-01 -2.143245030184994307e-02 1.126526585526335250e-01 4.449943383002771813e-01 3.865325381429197127e-01 1.115960331617587703e-01 1.898723127745260697e-01 1.087492239237341923e-01 -4.371058734914732846e-01 1.135012479177778671e-01 1.305958968289530897e-01 -6.939893273580869382e-01 -3.685445026032705407e-01 5.130762395270688225e-02 -1.092990352449932090e-01 -4.613367378753686632e-01 4.529621709606537761e-01 2.868172585647395523e-01 4.187302148872111274e-01 -1.036566207976545861e-01 1.567331450124353209e-01 -4.672541328969281316e-01 -4.213519817020877634e-01 3.702003586652219957e-01 1.448234649213853420e-01 1.008731736780737881e-01 -3.461159516318002005e-01 2.846312135162230583e-01 -2.675033138288879786e-01 -6.636456750262777204e-02 -1.259584486998638619e-01 -4.518980097873637192e-02 -2.436390153301433992e-01 5.790516414877373147e-02 2.853296340558711397e-01 -2.714632081285557330e-01 1.127778042049507601e-01 -5.427183748611975611e-01 8.515665931974464309e-02 -1.244154488089977903e-02 -3.670053285489611183e-01 -2.165108456610268794e-01 -5.355021614429042454e-02 -2.727058091734490541e-01 6.735839269882558378e-02 -2.041080260377325095e-01 3.281003133421717122e-01 -2.521910407276028651e-02 -3.468400438059265900e-01 -1.631191361150781671e-01 -1.112879900918844339e-02 3.605830612263226653e-01 3.263761210094126564e-01 2.716887941049029309e-01 -3.630858543683148643e-01 2.446431206718842899e-01 3.605750071855892136e-01 2.076996928723748859e-01 1.565347680375139827e-02 -3.409713365231407112e-01 1.471457913594637068e-01 7.501233752812835887e-02 -5.239535531766754684e-01 2.279077763868777584e-01 -1.557828670823784567e-01 -3.003563984128511041e-02 -1.340785029798689243e-01 2.724209402106935740e-01 -4.698617786361648507e-01 -2.500314846760118281e-01 -9.448673799696841180e-02 3.423795710356699051e-01 -2.097497960891473168e-01 4.172355683970269125e-02 -2.402568437630193954e-02 -9.962642743288965819e-02 9.554680922316805686e-03 3.819684971765394121e-01 -4.407022446341886113e-01 1.986928260192120932e-01 4.447349667181390437e-02 -1.301306514761762512e-01 9.163276737138201233e-02 3.307104513255431644e-01 -1.900654519943497933e-01 3.143932169619310657e-01 -4.184423698356739552e-01 -9.727294487353752017e-02 2.502397656388209990e-01 -1.040897160543631378e-01 -3.394259156465986860e-01 -3.513741837918374911e-01 -2.701335993913537292e-01 -1.533648599456595985e-01 -2.972656727030164592e-01 -1.556029557034724620e-01 -1.355474770327859679e-01 -3.247405522583172166e-01 1.518072578503786713e-02 -2.307491421387209141e-01 1.082852519818975900e-01 1.347405699123786771e-01 3.855101612209510531e-01 9.393470370536373404e-02
